digraph Tree {
node [shape=box, style="filled", color="black", fontname="helvetica"] ;
edge [fontname="helvetica"] ;
0 [label="odor_n <= 0.5\ngini = 0.499\nsamples = 5686\nvalue = [2947, 2739]\nclass = p", fillcolor="#fdf6f1"] ;
1 [label="stalk-root_c <= 0.5\ngini = 0.287\nsamples = 3214\nvalue = [557, 2657]\nclass = e", fillcolor="#63b2ea"] ;
0 -> 1 [labeldistance=2.5, labelangle=45, headlabel="True"] ;
2 [label="stalk-surface-below-ring_y <= 0.5\ngini = 0.134\nsamples = 2836\nvalue = [205, 2631]\nclass = e", fillcolor="#48a5e7"] ;
1 -> 2 ;
3 [label="gini = 0.05\nsamples = 2700\nvalue = [69, 2631]\nclass = e", fillcolor="#3ea0e6"] ;
2 -> 3 ;
4 [label="gini = 0.0\nsamples = 136\nvalue = [136, 0]\nclass = p", fillcolor="#e58139"] ;
2 -> 4 ;
5 [label="stalk-surface-above-ring_s <= 0.5\ngini = 0.128\nsamples = 378\nvalue = [352, 26]\nclass = p", fillcolor="#e78a48"] ;
1 -> 5 ;
6 [label="gini = 0.0\nsamples = 26\nvalue = [0, 26]\nclass = e", fillcolor="#399de5"] ;
5 -> 6 ;
7 [label="gini = 0.0\nsamples = 352\nvalue = [352, 0]\nclass = p", fillcolor="#e58139"] ;
5 -> 7 ;
8 [label="spore-print-color_r <= 0.5\ngini = 0.064\nsamples = 2472\nvalue = [2390, 82]\nclass = p", fillcolor="#e68540"] ;
0 -> 8 [labeldistance=2.5, labelangle=-45, headlabel="False"] ;
9 [label="stalk-surface-below-ring_y <= 0.5\ngini = 0.029\nsamples = 2426\nvalue = [2390, 36]\nclass = p", fillcolor="#e5833c"] ;
8 -> 9 ;
10 [label="gini = 0.006\nsamples = 2386\nvalue = [2379, 7]\nclass = p", fillcolor="#e5813a"] ;
9 -> 10 ;
11 [label="gini = 0.399\nsamples = 40\nvalue = [11, 29]\nclass = e", fillcolor="#84c2ef"] ;
9 -> 11 ;
12 [label="gini = 0.0\nsamples = 46\nvalue = [0, 46]\nclass = e", fillcolor="#399de5"] ;
8 -> 12 ;
}